snowmelt
3.0131920285057276
11.285716572776437
13.402076498605311
11.435398382134736
1.7195019975770265
5.364614545251243
4.212508245254867
0.22275453165639192
0.7192912609316409
4.855191537528299
33.31166404741816
25.893136330181733
21.795631264685653
24.249269986292347
28.62106935295742
33.44145354919601
26.978963558911346
16.912258971249685
25.71911883307621
8.15393010363914
10.623707173857838
10.90254686307162
4.256231336388737
-0.7245762764941901
4.337155584478751
1.3411015258170664
1.721059569856152
1.5060765512753278
2.317895886255428
1.1752934041433036
1.4139844623859972
-0.2953104553744197
-1.346194100100547
0.4547590287402272
3.099138424731791
0.3563426248729229
-0.28192916116677225
0.8749732356518507
0.543885589344427
0.7383856193628162
0.3610312915407121
0.2402365014422685
0.2799620274454355
0.2916335081681609
0.8191802040673792
-0.6612227344885468
-1.2315952570643276
1.2388669930864125
4.321221167175099
0.3920975317712873
-0.7633111923001706
-0.8196102086920292
0.4938319406937808
4.661029285984114
9.740657783625647
8.99348877244629
7.170039913989603
5.09870167337358
1.7194362699054182
3.4066425720229745
3.5961601979564874
8.635794591298326
13.984801809070632
18.660427250433713
18.050818667095154
10.510294726351276
-4.043354380503297
-2.8388515822123734
-5.050014395359904
-2.105227390490472
-2.17475967714563
0.96178008178249
-2.9378198753576727
-4.3030165753792975
1.819797608954832
8.756997483316809
10.642849331954494
5.151494363415987
-13.262263112934306
-2.9304642505943774
-4.447447460051626
6.791841347469017
20.045709323324264
21.77899094331078
17.172690742043777
15.305147541174666
10.630974915344268
10.306932702474295
10.007025426253676
12.168997570329035
14.273295233181367
5.67912799527403
12.022587047773413
8.56149052514229
12.666901361080818
14.238019258948043
20.00438448449131
28.67422622058075
31.396628983784467
30.611643080599606
35.295885176281445
25.180270224926062
13.513211808982305
18.15893310739193
19.99269195308443
19.199500232818536
14.320553422672674
17.04326655017212
17.115780886728317
5.578464152873494
0.9071745795663446
-0.49196467688307166
2.13151292828843
-0.7586542186327279
-0.5804452365264297
-0.5838641731534153
0.534321986255236
1.2574125286191702
-0.6540154688991606
0.5364249259000644
0.8283697728766128
2.5797252047341317
-0.44390849489718676
0.13591785763856024
-0.30449113447684795
0.03510678873863071
-0.03171135124284774
0.22620853502303362
0.04348498384933919
0.32696978584863245
0.6163188281934708
-0.7002572419587523
1.5485457153990865
0.5651465025730431
-0.16229762427974492
-0.4136245575500652
0.5572783522075042
-1.4659052018541843
-1.686799984704703
3.551285546645522
-5.949017528863624
0.44640904031693934
-0.05564586343243718
-0.424826660938561
1.7557889721821993
3.444564792374149
-5.4979685780592265
-1.1316122356336564
3.5378299708478154
4.925902045471593
9.827536877430976
10.832502176612616
7.041913136513903
-11.54887288636528
-12.159248275170103
0.8865353307221084
4.09396433844231
-2.950778829213232
-5.0696101390756665
-3.3616824082564563
-3.4786767377052454
-5.553489200724289
-1.4401353155262768
-1.3427347141783685
2.482543521001935
4.396697725960985
6.960355119686573
10.84810286029242
6.73718253406696
1.3629253874532878
-4.827493065176531
-8.890131475124509
-2.018175762798637
2.024172558123246
5.80003706603311
11.583230919018387
10.203443226218223
9.272336471034214
9.826651791576296
8.548870078194886
6.799279221985489
7.8315802121534945
10.92272110064514
17.464150896715
16.814016522467135
15.809889792581089
-4.644334715616424
4.329492198943626
9.898812053585425
16.717217479180544
21.311022190982477
17.972550179669632
11.558576213056222
6.421908096084371
1.90749201788567
3.778806961514056
5.155527351237834
8.421303759794682
10.775859323237091
13.218518444197253
15.915671745315194
18.940834821900353
15.623769292701036
12.642055272636934
10.053640190605075
7.8177829828578975
5.935191542492248
5.870770265813917
6.93781405609722
7.401191721437499
6.1028848581481725
5.886870229927202
4.810705012952288
2.897179289488122
3.5381889030492553
2.2722964487814656
0.8175936855841428
0.9809943778285136
0.46413503801450134
2.7877899272833018
3.2821133732330052
5.51730483318679
6.256657009571791
5.664139310596511
7.336102953320369
2.6659880472812802
-0.4526790376286954
-1.6716083231382073
-0.3154631984420121
-0.6783460522536189
-1.952593178069219
2.018176532397047
2.650340000586584
5.5315980646759275
7.204104042379186
8.665597975300624
4.615961915021762
5.809455247176811
-0.20846624099649488
1.5273959911894053
5.808983237342909
9.160680345492437
13.050312212249263
15.779460905585438
18.481314682075755
14.872756059328093
10.449771687062457
6.983174368040636
4.3877753536216915
3.98064199173823
5.351687616249547
2.9836986697744576
3.414246032992378
6.024612923851237
7.665211976040155
11.959696347033605
14.40704011307098
16.14839139780961
18.146506300987674
17.184187328955158
11.694986115628854
9.0058472660603
9.897786377114244
14.019752346910536
14.739067260175943
8.2382762026391
-16.78501307585975
-8.355501086567529
3.7908478006720543
8.738657382142264
13.876625866803806
11.479164563759696
8.104287906549871
6.341063851490617
3.4550611400045455
5.4957515633432195
7.665579283920427
-18.67526757080729
4.169970408722293
14.898510749277193
13.805208911653608
13.177479508449323
8.627120949638387
3.4110218558926135
2.9946625613762685
3.7390272751605758
1.2327526925131678
2.664113936852664
1.9217703704722227
-6.5130713295191525
-2.077291631186381
-0.03188665574416518
-3.6605924250092357
-6.074570003896952
-3.5183648213278502
-3.422656179685146
-1.5727189063094555
-2.508329850574955
-4.30795172858052
1.0921324484981596
1.1807591600809246
0.6657879643607885
-2.06275363243185
-1.8192210008390248
-3.4121655208058654
-5.122476071072742
-3.2286259782500566
2.0874943678732962
-2.9193570718634874
-8.040159897925331
-5.503049775771797
-5.198815871123225
-1.2547924669925123
6.927943220175803
11.134891489334404
1.9854253582190722
-3.966223565256223
-2.905594510445371
2.0508917053230107
7.601241903100163
11.74752756874077
12.328274135338143
11.105433671595529
11.766990950843319
15.755623094690964
18.038434341410174
17.732493770681323
15.283426984073595
11.916094817779959
5.897121595731005
10.265619673766196
13.530072112428025
13.919903906714172
0.34884131760336456
-1.2796283499803394
-2.1737720899283888
-5.1105714905424975
-0.6074227938079275
6.1014086259528995
13.767030641552992
19.53175285505131
22.934034678386524
22.66553165204823
24.064370834210422
25.855037537927274
24.99854667444015
25.522069758793805
20.909527980256826
18.193231253884733
11.416878830990754
6.618170792935416
6.967578463256359
12.510477340935418
10.672383802554881
11.005418322980404
13.598705983138643
12.723206845927052
14.848925999598578
9.11972073931247
8.568579942686483
5.088212439790368
5.589204623247497
-1.4273677456658334
-1.368263108190149
-0.5896124315913767
0.14867658992297947
1.1853716362733393
2.005067496281117
-3.109177159005776
-4.151876810844987
-3.945164483040571
-4.277397827198729
-2.9849097165744753
0.6834947649855166
1.847959001082927
6.774830614915118
12.006240822467953
13.868654112378135
10.594135074457153
11.298395851254464
10.795077483076602
9.547804999863729
12.366423076018691
12.661264890246093
4.76906704287976
2.5245217874180526
4.577010980667547
2.457473739422858
4.884681346546858
5.59872340396978
4.175832885783166
8.678914700215682
7.215824349876494
-25.57758226073347
-16.81127261770889
-13.088767057843507
-2.690411091921851
2.7869368751533328
4.208183582406491
6.667429383657873
9.57454227679409
3.874114342825487
7.095670295879245
8.952883516764269
6.5825742448680105
8.827373979846016
13.69408409446478
15.135763934627175
19.224576929910107
16.21604700917378
10.70972575689666
8.73095372687094
12.121129591437057
13.726303741103038
13.317232114309444
10.873490452440455
11.100125804403797
19.924735693086404
21.69854536128696
21.376901132054627
22.274386829521973
30.979215906118043
7.142904322245158
6.72845389158465
14.694522418780252
14.82134455217359
15.042942928538347
17.910189899383113
17.57692779585098
17.815739398899797
17.761621221356716
15.690146175601209
12.783970516563082
9.358245343978828
7.481149631474788
-2.611611301312223
-3.9527878320465484
-1.0734410682537903
-0.21447143331170082
-2.9636803498336426
-2.428949324802185
-1.7277315778968234
-4.135377612896264
0.007766080554574728
0.514088895637542
-0.3650564554845914
-5.886639741559823
-4.1249949490496265
-2.052790425485
-1.910301907453686
-1.7172328483623762
-3.6586999610687294
-0.8949535121986022
-0.25371120730414987
5.012606731848791
12.253105541924015
6.218637693130101
-3.6198442140594125
-0.2332283762128403
4.430045192673181
1.5917715530376881
-1.4275385989652325
3.601126325627168
2.3981208953773603
15.711292895488441
21.449593871831894
24.185423788730986
29.247938706772402
58.72789739188738
23.78874541935511
15.895960402907804
14.429948427481577
8.195821051951498
8.822722531389445
0.5874550696462393
0.445961463265121
1.365945805911906
-21.01889256632421
-41.491231611929834
19.433440802502446
14.412541820085607
10.392803285853006
4.17375632643234
0.9583403036231175
1.7285712035372853
2.269938447745517
1.3468950737733394
1.5357932964107022
-0.15277375315781683
0.5462339672958478
0.12618341634515673
3.965399545733817
2.2285724113462493
0.47445446718484163
-0.10938274720683694
-0.030635406728833914
0.02621774945873767
-0.1637918793130666
-0.21269569383002818
-0.10935124661773443
0.2510230486514047
-0.07458859123289585
-1.4069181496743113
1.1672275161836296
-0.813706404180266
0.5427235082024708
-0.5827872954541817
-2.722565307165496
-3.112869991688058
-0.8443484476301819
0.6331391236744821
15.83893003500998
17.94420439575333
8.476223034434952
1.1274121454916894
5.134309659479186
7.952652131672949
4.876259311567992
11.710083893151022
15.643279614159837
19.219405759242363
11.986186870723031
0.7747019985690713
0.31340379419270903
0.1100774424849078
-0.32108253869228065
-0.6580889876931906
0.42456781421788037
0.22086464730091393
0.04806471266783774
-0.6180829058866948
0.10708247614093125
-0.3648156903218478
0.009433138882741332
0.11571586970239878
-0.0572235060390085
0.0763291425537318
0.2931598643772304
-0.06186319701373577
-0.38010167772881687
-0.06248386483639479
0.9485768680460751
-0.4061178674455732
-0.25345454807393253
0.6033242493867874
-2.757144158007577
-0.32563941762782633
-0.20174580242019147
-1.0187703731935471
-0.7875126075232401
-0.7441323203966022
-0.7496577157871798
-3.8153687828453258
-2.395278980373405
0.03656111436430365
4.145185617846437
11.090144090820104
11.14098058140371
-14.246710157836787
-9.19840839819517
-6.02554065186996
-0.6650295183062553
-0.9379457599716261
-1.552838743198663
0.05783421115484089
-2.7374517859425396
-0.8675713695120066
0.4271622881060466
5.846057755290531
10.350788204814307
16.468760730465874
26.43780466914177
7.027112993528135
-0.7504230762133375
-1.2477430395083502
6.657864530570805
6.574505827855319
10.929823110229336
14.012484015431255
14.172282378305681
9.04594756651204
3.164333117660135
12.044034278485924
7.545865025487728
-1.4715016344562173
3.046146312961355
12.827731826109812
16.421917247003876
15.644058012636378
17.202033068053424
19.513285041204654
13.832091344404034
11.638329289853573
16.554012138978578
17.859297048300505
17.98423746798653
8.769470752449706
6.137297236127779
7.045845524640754
3.381878754356876
9.451478792354465
9.887924070702866
5.52410334488377
4.049940099590458
8.648932237178087
11.603685490670614
13.650689892587252
15.154400070663542
12.217289828462526
12.849243801902048
14.631258553126827
16.63102572131902
14.858037627767771
13.838990342919715
15.023717211443
9.79252470715437
4.702383919036947
1.5352447867626324
-0.4999741396168247
0.0689410922350362
0.6931977522326633
-0.5255564278922975
1.4389088733587414
0.16696091869380325
-1.0589000011095777
-1.525840391521342
0.7333612953079864
-0.5160081457579508
-1.0772219953360036
-0.38916696421802044
1.5127560143591836
0.7063174971845001
-1.017159646260552
0.9944699002662674
1.1111301878700033
1.0903870570473373
-4.4606316508725286
-0.7670137688983232
0.22128684096969664
-1.392909781076014
0.606833684258163
0.9385168026201427
0
0
0
0
0
0
0
0
0
0
0
0
0
0
0
0
